digraph Tree {
node [shape=box, style="filled, rounded", color="black", fontname=helvetica] ;
edge [fontname=helvetica] ;
0 [label="num_major_vessels <= 0.5\ngini = 0.49\nsamples = 100.0%\nvalue = [0.45, 0.55]\nclass = disease", fillcolor="#399de531"] ;
1 [label="thalassemia_fixed defect <= 0.5\n0.35\n59.1%\n[0.22, 0.78]\ndisease", fillcolor="#399de5b6"] ;
0 -> 1 [labeldistance=2.5, labelangle=45, headlabel="True"] ;
2 [label="st_slope_upsloping <= 0.5\n0.5\n18.8%\n[0.48, 0.52]\ndisease", fillcolor="#399de514"] ;
1 -> 2 ;
3 [label="st_depression <= 1.95\n0.44\n8.4%\n[0.33, 0.67]\ndisease", fillcolor="#399de57f"] ;
2 -> 3 ;
4 [label="cholesterol <= 189.5\n0.49\n6.5%\n[0.44, 0.56]\ndisease", fillcolor="#399de539"] ;
3 -> 4 ;
5 [label="0.0\n0.6%\n[1.0, 0.0]\nno disease", fillcolor="#e58139ff"] ;
4 -> 5 ;
6 [label="0.46\n5.8%\n[0.36, 0.64]\ndisease", fillcolor="#399de571"] ;
4 -> 6 ;
7 [label="0.0\n1.9%\n[0.0, 1.0]\ndisease", fillcolor="#399de5ff"] ;
3 -> 7 ;
8 [label="age <= 51.5\n0.48\n10.4%\n[0.59, 0.41]\nno disease", fillcolor="#e5813950"] ;
2 -> 8 ;
9 [label="0.0\n4.5%\n[1.0, 0.0]\nno disease", fillcolor="#e58139ff"] ;
8 -> 9 ;
10 [label="st_depression <= 0.3\n0.39\n5.8%\n[0.27, 0.73]\ndisease", fillcolor="#399de5a2"] ;
8 -> 10 ;
11 [label="0.0\n0.6%\n[1.0, 0.0]\nno disease", fillcolor="#e58139ff"] ;
10 -> 11 ;
12 [label="0.34\n5.2%\n[0.21, 0.79]\ndisease", fillcolor="#399de5b9"] ;
10 -> 12 ;
13 [label="resting_blood_pressure <= 146.0\n0.17\n40.3%\n[0.09, 0.91]\ndisease", fillcolor="#399de5e5"] ;
1 -> 13 ;
14 [label="chest_pain_type_atypical angina <= 0.5\n0.11\n35.7%\n[0.06, 0.94]\ndisease", fillcolor="#399de5ef"] ;
13 -> 14 ;
15 [label="exercise_induced_angina_yes <= 0.5\n0.08\n20.1%\n[0.04, 0.96]\ndisease", fillcolor="#399de5f4"] ;
14 -> 15 ;
16 [label="0.09\n18.2%\n[0.05, 0.95]\ndisease", fillcolor="#399de5f3"] ;
15 -> 16 ;
17 [label="0.0\n1.9%\n[0.0, 1.0]\ndisease", fillcolor="#399de5ff"] ;
15 -> 17 ;
18 [label="max_heart_rate_achieved <= 159.0\n0.16\n15.6%\n[0.09, 0.91]\ndisease", fillcolor="#399de5e7"] ;
14 -> 18 ;
19 [label="0.28\n8.4%\n[0.17, 0.83]\ndisease", fillcolor="#399de5cc"] ;
18 -> 19 ;
20 [label="0.0\n7.1%\n[0.0, 1.0]\ndisease", fillcolor="#399de5ff"] ;
18 -> 20 ;
21 [label="st_slope_upsloping <= 0.5\n0.44\n4.5%\n[0.33, 0.67]\ndisease", fillcolor="#399de57f"] ;
13 -> 21 ;
22 [label="0.0\n1.9%\n[0.0, 1.0]\ndisease", fillcolor="#399de5ff"] ;
21 -> 22 ;
23 [label="fasting_blood_sugar_lower than 120mg/ml <= 0.5\n0.44\n2.6%\n[0.67, 0.33]\nno disease", fillcolor="#e581397f"] ;
21 -> 23 ;
24 [label="0.0\n0.6%\n[0.0, 1.0]\ndisease", fillcolor="#399de5ff"] ;
23 -> 24 ;
25 [label="0.0\n1.9%\n[1.0, 0.0]\nno disease", fillcolor="#e58139ff"] ;
23 -> 25 ;
26 [label="st_depression <= 0.85\n0.35\n40.9%\n[0.78, 0.22]\nno disease", fillcolor="#e58139b5"] ;
0 -> 26 [labeldistance=2.5, labelangle=-45, headlabel="False"] ;
27 [label="chest_pain_type_atypical angina <= 0.5\n0.5\n18.2%\n[0.46, 0.54]\ndisease", fillcolor="#399de524"] ;
26 -> 27 ;
28 [label="resting_blood_pressure <= 109.0\n0.38\n9.7%\n[0.75, 0.25]\nno disease", fillcolor="#e58139aa"] ;
27 -> 28 ;
29 [label="0.0\n1.9%\n[0.0, 1.0]\ndisease", fillcolor="#399de5ff"] ;
28 -> 29 ;
30 [label="0.0\n7.8%\n[1.0, 0.0]\nno disease", fillcolor="#e58139ff"] ;
28 -> 30 ;
31 [label="cholesterol <= 162.0\n0.27\n8.4%\n[0.16, 0.84]\ndisease", fillcolor="#399de5cf"] ;
27 -> 31 ;
32 [label="0.0\n0.6%\n[1.0, 0.0]\nno disease", fillcolor="#e58139ff"] ;
31 -> 32 ;
33 [label="thalassemia_normal <= 0.5\n0.2\n7.8%\n[0.11, 0.89]\ndisease", fillcolor="#399de5df"] ;
31 -> 33 ;
34 [label="0.11\n7.1%\n[0.06, 0.94]\ndisease", fillcolor="#399de5ef"] ;
33 -> 34 ;
35 [label="0.0\n0.6%\n[1.0, 0.0]\nno disease", fillcolor="#e58139ff"] ;
33 -> 35 ;
36 [label="age <= 51.5\n0.03\n22.7%\n[0.98, 0.02]\nno disease", fillcolor="#e58139fb"] ;
26 -> 36 ;
37 [label="resting_blood_pressure <= 122.5\n0.28\n1.9%\n[0.83, 0.17]\nno disease", fillcolor="#e58139cc"] ;
36 -> 37 ;
38 [label="0.0\n1.3%\n[1.0, 0.0]\nno disease", fillcolor="#e58139ff"] ;
37 -> 38 ;
39 [label="0.0\n0.6%\n[0.0, 1.0]\ndisease", fillcolor="#399de5ff"] ;
37 -> 39 ;
40 [label="0.0\n20.8%\n[1.0, 0.0]\nno disease", fillcolor="#e58139ff"] ;
36 -> 40 ;
}